/*!
 * The following copyright notice may not be removed under any circumstances.
 * 
 * Copyright:
 * Ryoichi Tsunekawa Bagel&Co All rights reserved
 */
Cufon.registerFont({"w":729,"face":{"font-family":"Bebas","font-weight":400,"font-stretch":"normal","units-per-em":"1408","panose-1":"0 0 0 0 0 0 0 0 0 0","ascent":"1126","descent":"-282","x-height":"15","bbox":"64.0911 -1651 1343 210","underline-thickness":"50","underline-position":"-50","unicode-range":"U+0020-U+00AD"},"glyphs":{" ":{"w":130},"!":{"d":"65,-553r0,-701r189,0r0,701r-14,242r-161,0xm65,0r0,-189r189,0r0,189r-189,0","w":319},"\"":{"d":"94,-1166r-29,-286r175,0r-29,286r-117,0xm318,-1166r-29,-286r175,0r-29,286r-117,0","w":529},"#":{"d":"863,-725r-40,238r195,0r-29,190r-197,0r-49,297r-189,0r49,-297r-163,0r-49,297r-189,0r49,-297r-186,0r29,-190r188,0r40,-238r-186,0r29,-190r188,0r56,-340r189,0r-56,340r163,0r56,-340r189,0r-56,340r195,0r-29,190r-197,0xm673,-725r-162,0r-39,238r162,0","w":1154},"$":{"d":"382,-1108v-67,-1,-102,65,-101,138v0,57,26,115,74,176v29,36,144,129,171,156v82,84,158,195,164,317v9,171,-83,294,-232,320r0,88r-160,0r0,-92v-141,-33,-224,-175,-233,-344r181,-13v8,74,28,126,57,158v54,59,138,39,177,-26v12,-20,19,-47,19,-83v0,-51,-21,-105,-70,-155v-92,-94,-234,-204,-295,-311v-33,-57,-49,-120,-49,-187v1,-151,86,-277,213,-303r0,-81r160,0r0,81v132,28,214,139,224,279r-182,33v-5,-51,-20,-91,-44,-121v-16,-20,-41,-30,-74,-30","w":756},"%":{"d":"222,-1308v84,0,157,74,157,157r0,358v3,83,-74,156,-157,156v-84,0,-157,-73,-157,-156r0,-358v-2,-84,73,-157,157,-157xm219,-1210v-31,0,-58,26,-57,57r0,358v-1,31,26,57,57,57v31,0,58,-26,57,-57r0,-358v1,-31,-26,-57,-57,-57xm622,-507v-2,-84,73,-157,157,-157v84,0,156,74,156,157r0,358v3,84,-73,155,-156,155v-84,0,-157,-72,-157,-155r0,-358xm776,-94v31,0,58,-26,57,-57r0,-358v1,-31,-26,-57,-57,-57v-31,0,-58,26,-57,57r0,358v-1,31,26,57,57,57xm236,21r-111,0r640,-1326r110,0","w":1000},"&":{"d":"110,-930v-42,-209,66,-384,264,-384v112,0,201,63,239,145v54,117,23,235,-52,334r-144,190v42,87,89,169,142,245v31,-71,55,-147,72,-228r171,38v-30,133,-71,246,-122,338v49,45,91,67,127,67r0,175v-73,0,-149,-33,-227,-100v-75,79,-155,118,-240,118v-159,0,-276,-131,-275,-298v0,-65,16,-132,47,-202v10,-23,76,-130,103,-169v-35,-85,-86,-174,-105,-269xm374,-1169v-63,0,-101,78,-99,150v0,37,19,102,58,194r89,-116v29,-39,44,-75,44,-108v1,-70,-38,-120,-92,-120xm240,-290v-1,69,35,124,100,124v38,0,78,-24,121,-72v-51,-66,-103,-147,-155,-242r-36,62v-20,46,-30,89,-30,128","w":872},"'":{"d":"65,-1452r175,0r-29,286r-117,0","w":305},"(":{"d":"318,92v-121,-190,-253,-537,-253,-779v0,-268,130,-561,253,-739r119,56v-78,159,-159,385,-183,567v-5,40,-8,79,-8,116v-5,187,108,536,194,717","w":505},")":{"d":"259,-686v0,-191,-105,-509,-191,-683r119,-56v46,69,88,144,126,227v171,381,165,653,0,1044v-37,87,-79,169,-126,246r-122,-62v79,-173,159,-406,186,-599v5,-41,8,-80,8,-117","w":504},"*":{"d":"561,-1016r-153,27r104,108r-130,96r-72,-137r-73,137r-132,-96r111,-110r-151,-25r52,-151r137,67r-22,-155r159,0r-22,157r143,-69","w":626},"+":{"d":"457,-683r252,0r0,140r-252,0r0,252r-140,0r0,-252r-252,0r0,-140r252,0r0,-252r140,0r0,252","w":774},",":{"d":"65,0r0,-188r190,0r0,188r-69,144r-80,0r45,-144r-86,0","w":320},"-":{"d":"65,-721r560,0r0,190r-560,0r0,-190","w":690},"\u2010":{"d":"65,-721r560,0r0,190r-560,0r0,-190","w":690},".":{"d":"65,-188r189,0r0,189r-189,0r0,-189","w":319},"\/":{"d":"588,-1333r154,0r-523,1371r-154,0","w":807},"0":{"d":"365,-1270v162,0,299,139,299,300r0,684v5,162,-139,299,-299,299v-162,0,-300,-138,-300,-299r0,-684v-5,-162,139,-300,300,-300xm359,-180v58,0,109,-51,109,-109r0,-685v2,-58,-51,-109,-109,-109v-58,0,-108,51,-108,109r0,685v-2,58,50,109,108,109"},"1":{"d":"65,-1097v93,-11,187,-80,218,-157r132,0r0,1254r-190,0r0,-965r-160,0r0,-132","w":480},"2":{"d":"377,-1078v-72,0,-124,72,-123,163r0,48r-186,0v-11,-232,101,-383,314,-388v161,-4,299,150,299,310v0,85,-19,168,-57,247v-54,110,-243,360,-321,494v-5,9,-8,15,-8,17r371,1r0,185r-601,0r0,-173v70,-122,185,-274,269,-393v58,-81,101,-155,130,-221v23,-54,35,-104,35,-151v0,-75,-50,-139,-122,-139","w":746},"3":{"d":"364,13v-162,0,-303,-139,-299,-299r0,-31r180,-14v3,50,7,93,37,121v20,19,46,30,77,30v87,0,130,-40,130,-121r0,-74v0,-129,-67,-193,-202,-193r0,-162v149,1,209,-88,209,-244v0,-82,-36,-123,-108,-123v-85,-1,-116,74,-109,170r-185,0v-10,-204,98,-343,285,-343v166,0,287,125,285,292r0,53v2,114,-60,215,-140,263v56,31,98,80,130,143v28,54,22,137,24,218v4,175,-142,314,-314,314","w":743},"4":{"d":"65,-461r334,-794r189,0r0,794r121,0r0,190r-121,0r0,270r-189,0r0,-270r-334,0r0,-190xm399,-461r0,-391r-156,391r156,0","w":774},"5":{"d":"368,-715v-71,0,-101,67,-94,145r-190,0r0,-685r553,0r0,190r-363,0r0,269v29,-39,72,-73,142,-73v166,1,234,119,234,299r0,270v4,175,-127,314,-300,314v-160,0,-289,-138,-285,-300r0,-30r181,-14v3,80,22,151,99,151v77,0,116,-40,116,-121r0,-307v-1,-53,-30,-108,-93,-108","w":715},"6":{"d":"635,-943r-197,0v6,-78,-23,-140,-94,-140v-60,-1,-94,50,-94,109r0,250v43,-39,91,-58,143,-58v166,0,242,120,242,298r0,215r-1,0v-4,152,-127,282,-284,282v-162,0,-285,-137,-285,-299r0,-684v1,-133,71,-235,171,-276v211,-88,419,79,399,303xm345,-628v-58,0,-94,52,-94,110r0,229v-1,61,34,109,93,109v59,0,95,-49,94,-109r0,-232v-1,-52,-31,-107,-93,-107","w":700},"7":{"d":"633,-1255r0,190r-265,1064r-185,0r265,-1064r-383,0r0,-190r568,0","w":698},"8":{"d":"664,-910v3,112,-59,206,-139,248v56,31,98,80,130,143v29,57,23,147,24,233v2,167,-140,299,-315,299v-162,0,-303,-139,-299,-299r0,-114v-3,-112,68,-217,154,-262v-51,-26,-89,-70,-118,-130v-22,-45,-21,-117,-21,-186v0,-173,121,-292,299,-292v166,0,287,125,285,292r0,68xm372,-181v69,0,116,-54,118,-134r0,-60v0,-75,-17,-125,-51,-150v-16,-12,-38,-18,-67,-18v-88,0,-120,69,-118,168r0,60v-2,73,48,134,118,134xm372,-761v89,2,126,-70,124,-166v-1,-86,-28,-140,-81,-162v-12,-5,-26,-8,-43,-8v-93,3,-128,68,-124,170v5,106,30,164,124,166","w":744},"9":{"d":"306,-474v-166,-1,-241,-121,-241,-299r0,-215r1,0v6,-123,77,-220,173,-260v34,-15,71,-22,111,-22v160,-4,285,137,285,300r0,684v4,161,-125,299,-285,299v-170,0,-298,-141,-285,-326r196,0v-6,78,23,139,94,139v60,1,94,-49,94,-108r0,-251v-44,39,-92,59,-143,59xm354,-628v59,0,95,-48,95,-111r0,-229v0,-59,-34,-109,-94,-109v-60,0,-94,50,-94,109r0,232v0,37,13,67,40,91v12,11,30,17,53,17","w":700},":":{"d":"65,-188r190,0r0,188r-190,0r0,-188xm65,-720r190,0r0,189r-190,0r0,-189","w":320},";":{"d":"65,-188r189,0r0,189r-68,144r-80,0r44,-144r-85,0r0,-189xm65,-720r189,0r0,189r-189,0r0,-189","w":319},"<":{"d":"692,-954r0,159r-431,178r431,181r0,158r-627,-271r0,-137","w":757},"=":{"d":"65,-711r0,-140r644,0r0,140r-644,0xm65,-437r0,-140r644,0r0,140r-644,0","w":774},">":{"d":"65,-954r627,271r0,137r-627,268r0,-158r431,-179r-431,-180r0,-159","w":757},"?":{"d":"65,-982v18,-168,112,-285,305,-288v177,-3,292,136,292,311v0,129,-59,252,-175,369v-55,56,-69,108,-67,202r0,75r-190,0v-5,-147,15,-270,87,-338v64,-61,106,-126,129,-191v25,-68,31,-171,-9,-222v-22,-28,-52,-39,-93,-35v-58,6,-91,77,-97,149xm230,-181r190,0r0,190r-190,0r0,-190","w":727},"@":{"d":"730,-39v147,0,288,-52,407,-153r206,0v-122,169,-340,303,-612,303v-189,0,-348,-64,-475,-191v-127,-127,-191,-296,-191,-505v0,-208,59,-383,178,-526v119,-143,284,-214,495,-214v127,0,231,24,310,73v187,115,281,291,281,528v0,134,-37,256,-112,366v-85,124,-191,186,-320,186v-68,0,-113,-28,-134,-83v-58,52,-94,81,-186,83v-184,3,-283,-165,-283,-361v0,-125,29,-240,88,-346v70,-127,163,-190,278,-190v73,0,133,31,180,93r10,-67r189,0r-109,689v0,11,5,17,15,17v84,-2,160,-102,194,-177v27,-59,41,-129,41,-210v0,-263,-175,-450,-439,-450v-153,0,-280,53,-379,158v-99,105,-148,246,-148,423v0,320,201,554,516,554xm492,-487v0,81,35,169,106,168v44,0,80,-24,107,-71v41,-74,81,-261,81,-373v0,-78,-31,-150,-101,-150v-68,0,-120,57,-155,172v-25,81,-38,166,-38,254","w":1408},"A":{"d":"308,-288r-46,288r-197,0r213,-1253r260,0r210,1253r-198,0r-45,-288r-197,0xm407,-966r-70,494r140,0","w":813},"B":{"d":"545,-656v99,40,158,155,157,306v0,145,-51,250,-144,306v-48,29,-96,44,-143,44r-350,0r0,-1254r283,0v201,6,330,124,330,347v0,118,-48,212,-133,251xm494,-364v-1,-122,-36,-194,-146,-197r-79,0r0,374r79,0v87,3,146,-75,146,-177xm477,-907v0,-92,-45,-154,-129,-155r-79,0r0,320r79,0v84,2,129,-67,129,-165","w":767},"C":{"d":"664,-283v5,162,-139,299,-299,299v-162,0,-300,-138,-300,-299r0,-684v-5,-162,139,-300,300,-300v162,0,303,139,299,300r0,143r-196,0r0,-147v2,-58,-51,-109,-109,-109v-58,0,-108,51,-108,109r0,686v-2,58,50,108,108,108v58,0,109,-50,109,-108r0,-173r196,0r0,175"},"D":{"d":"362,-1254v161,-5,297,139,297,299r0,655v5,160,-137,300,-297,300r-297,0r0,-1254r297,0xm475,-952v2,-58,-50,-109,-107,-109r-114,0r0,874r114,0v58,2,107,-52,107,-109r0,-656","w":724},"E":{"d":"65,0r0,-1254r538,0r0,189r-349,0r0,343r255,0r0,190r-255,0r0,343r349,0r0,189r-538,0","w":668},"F":{"d":"254,0r-189,0r0,-1254r538,0r0,189r-349,0r0,343r255,0r0,190r-255,0r0,532","w":668},"G":{"d":"664,-283v5,162,-139,299,-299,299v-161,0,-300,-139,-300,-299r0,-684v-5,-162,139,-300,300,-300v162,0,303,139,299,300r0,143r-196,0r0,-147v2,-58,-51,-109,-109,-109v-58,0,-108,51,-108,109r0,686v-2,58,50,108,108,108v58,0,109,-50,109,-108r0,-247r-105,0r0,-189r301,0r0,438"},"H":{"d":"255,-531r0,531r-190,0r0,-1253r190,0r0,532r226,0r0,-532r190,0r0,1253r-190,0r0,-531r-226,0","w":736},"I":{"d":"254,0r-189,0r0,-1253r189,0r0,1253","w":319},"J":{"d":"147,-171v80,0,150,-34,149,-109r0,-971r185,0r0,967v5,162,-138,298,-299,298v-48,0,-87,-5,-117,-15r27,-176v21,4,40,6,55,6","w":546},"K":{"d":"255,-396r0,396r-190,0r0,-1254r190,0r0,447r230,-447r202,0r-259,513r303,741r-222,0r-198,-508","w":796},"L":{"d":"580,0r-515,0r0,-1253r189,0r0,1065r326,0r0,188","w":645},"M":{"d":"254,0r-189,0r0,-1254r271,0r176,899r169,-899r261,0r0,1254r-189,0r0,-788r-164,788r-152,0r-183,-786r0,786","w":1007},"N":{"d":"278,-1254r250,842r0,-842r189,0r0,1254r-203,0r-260,-803r0,803r-189,0r0,-1254r213,0","w":782},"O":{"d":"65,-969v-5,-161,139,-300,299,-300v162,0,300,139,300,300r0,684v5,162,-139,300,-300,300v-162,0,-299,-139,-299,-300r0,-684xm359,-179v58,0,108,-50,108,-108r0,-686v2,-58,-50,-108,-108,-108v-58,0,-109,50,-109,108r0,686v-2,58,51,108,109,108"},"P":{"d":"659,-772v4,160,-136,305,-296,300r-109,0r0,472r-189,0r0,-1253r298,0v176,-4,296,123,296,299r0,182xm368,-659v58,2,108,-51,108,-109r0,-183v1,-64,-44,-110,-108,-109r-114,0r0,401r114,0","w":724},"Q":{"d":"365,-1269v162,0,299,140,299,300r0,684v0,54,-13,104,-40,150v17,19,41,29,72,29r0,176v-95,0,-159,-30,-194,-89v-42,23,-88,34,-137,34v-162,0,-300,-139,-300,-300r0,-684v-5,-162,139,-300,300,-300xm359,-179v58,0,109,-50,109,-108r0,-686v2,-58,-51,-108,-109,-108v-58,0,-108,50,-108,108r0,686v-2,58,50,108,108,108","w":761},"R":{"d":"363,-1253v196,-1,297,104,297,299r0,182v0,89,-34,164,-101,225r140,547r-204,0r-115,-473v-40,3,-84,0,-126,1r0,472r-189,0r0,-1253r298,0xm368,-659v58,2,108,-51,108,-109r0,-183v0,-73,-36,-109,-108,-109r-114,0r0,401r114,0","w":764},"S":{"d":"381,-1099v-67,-1,-102,65,-101,138v0,57,26,114,74,175v29,37,145,130,171,157v63,66,104,120,137,197v53,123,29,251,-40,344v-48,65,-122,103,-235,103v-212,0,-307,-152,-322,-355r180,-13v8,73,27,125,58,158v54,59,138,39,177,-26v12,-20,19,-47,19,-83v0,-52,-22,-105,-71,-155v-94,-95,-243,-214,-301,-322v-28,-54,-42,-113,-42,-176v-2,-179,106,-312,291,-312v186,1,289,114,305,288r-181,33v-5,-51,-20,-91,-44,-120v-17,-21,-42,-31,-75,-31","w":755},"T":{"d":"266,-1064r-201,0r0,-189r590,0r0,189r-200,0r0,1064r-189,0r0,-1064","w":720},"U":{"d":"664,-284v5,163,-138,298,-300,298v-162,0,-299,-137,-299,-298r0,-969r185,0r0,967v-2,58,51,108,109,108v58,0,108,-50,108,-108r0,-967r197,0r0,969"},"V":{"d":"289,0r-224,-1253r198,0r157,975r159,-975r198,0r-228,1253r-260,0","w":842},"W":{"d":"842,-1253r198,0r-196,1253r-181,0r-107,-684r-100,684r-181,0r-210,-1253r198,0r99,671r91,-671r198,0r99,671","w":1105},"X":{"d":"762,0r-203,0r-145,-398r-146,398r-203,0r246,-630r-246,-623r209,0r140,387r139,-387r209,0r-246,623","w":827},"Y":{"d":"318,-525r-253,-729r208,0r140,450r139,-450r209,0r-254,729r0,525r-189,0r0,-525","w":826},"Z":{"d":"617,-1253r0,189r-348,876r348,0r0,188r-552,0r0,-188r349,-876r-349,0r0,-189r552,0","w":682},"[":{"d":"65,-1332r318,0r0,190r-128,0r0,955r128,0r0,188r-318,0r0,-1333","w":448},"\\":{"d":"65,-1332r153,0r524,1370r-154,0","w":807},"]":{"d":"65,-1333r317,0r0,1334r-317,0r0,-189r128,0r0,-955r-128,0r0,-190","w":447},"^":{"d":"313,-1452r156,351r-130,0r-71,-171r-71,171r-132,0r156,-351r92,0","w":534},"_":{"d":"65,210r0,-139r967,0r0,139r-967,0","w":1097},"`":{"d":"65,-1416r175,0r102,287r-117,0","w":407},"a":{"d":"308,-288r-46,288r-197,0r213,-1253r260,0r210,1253r-198,0r-45,-288r-197,0xm407,-966r-70,494r140,0","w":813},"b":{"d":"545,-656v99,40,158,155,157,306v0,145,-51,250,-144,306v-48,29,-96,44,-143,44r-350,0r0,-1254r283,0v201,6,330,124,330,347v0,118,-48,212,-133,251xm494,-364v-1,-122,-36,-194,-146,-197r-79,0r0,374r79,0v87,3,146,-75,146,-177xm477,-907v0,-92,-45,-154,-129,-155r-79,0r0,320r79,0v84,2,129,-67,129,-165","w":767},"c":{"d":"664,-283v5,162,-139,299,-299,299v-162,0,-300,-138,-300,-299r0,-684v-5,-162,139,-300,300,-300v162,0,303,139,299,300r0,143r-196,0r0,-147v2,-58,-51,-109,-109,-109v-58,0,-108,51,-108,109r0,686v-2,58,50,108,108,108v58,0,109,-50,109,-108r0,-173r196,0r0,175"},"d":{"d":"362,-1254v161,-5,297,139,297,299r0,655v5,160,-137,300,-297,300r-297,0r0,-1254r297,0xm475,-952v2,-58,-50,-109,-107,-109r-114,0r0,874r114,0v58,2,107,-52,107,-109r0,-656","w":724},"e":{"d":"65,0r0,-1254r538,0r0,189r-349,0r0,343r255,0r0,190r-255,0r0,343r349,0r0,189r-538,0","w":668},"f":{"d":"254,0r-189,0r0,-1254r538,0r0,189r-349,0r0,343r255,0r0,190r-255,0r0,532","w":668},"g":{"d":"664,-283v5,162,-139,299,-299,299v-161,0,-300,-139,-300,-299r0,-684v-5,-162,139,-300,300,-300v162,0,303,139,299,300r0,143r-196,0r0,-147v2,-58,-51,-109,-109,-109v-58,0,-108,51,-108,109r0,686v-2,58,50,108,108,108v58,0,109,-50,109,-108r0,-247r-105,0r0,-189r301,0r0,438"},"h":{"d":"255,-531r0,531r-190,0r0,-1253r190,0r0,532r226,0r0,-532r190,0r0,1253r-190,0r0,-531r-226,0","w":736},"i":{"d":"254,0r-189,0r0,-1253r189,0r0,1253","w":319},"j":{"d":"147,-171v80,0,150,-34,149,-109r0,-971r185,0r0,967v5,162,-138,298,-299,298v-48,0,-87,-5,-117,-15r27,-176v21,4,40,6,55,6","w":546},"k":{"d":"255,-396r0,396r-190,0r0,-1254r190,0r0,447r230,-447r202,0r-259,513r303,741r-222,0r-198,-508","w":796},"l":{"d":"580,0r-515,0r0,-1253r189,0r0,1065r326,0r0,188","w":645},"m":{"d":"254,0r-189,0r0,-1254r271,0r176,899r169,-899r261,0r0,1254r-189,0r0,-788r-164,788r-152,0r-183,-786r0,786","w":1007},"n":{"d":"278,-1254r250,842r0,-842r189,0r0,1254r-203,0r-260,-803r0,803r-189,0r0,-1254r213,0","w":782},"o":{"d":"65,-969v-5,-161,139,-300,299,-300v162,0,300,139,300,300r0,684v5,162,-139,300,-300,300v-162,0,-299,-139,-299,-300r0,-684xm359,-179v58,0,108,-50,108,-108r0,-686v2,-58,-50,-108,-108,-108v-58,0,-109,50,-109,108r0,686v-2,58,51,108,109,108"},"p":{"d":"659,-772v4,160,-136,305,-296,300r-109,0r0,472r-189,0r0,-1253r298,0v176,-4,296,123,296,299r0,182xm368,-659v58,2,108,-51,108,-109r0,-183v1,-64,-44,-110,-108,-109r-114,0r0,401r114,0","w":724},"q":{"d":"365,-1269v162,0,299,140,299,300r0,684v0,54,-13,104,-40,150v17,19,41,29,72,29r0,176v-95,0,-159,-30,-194,-89v-42,23,-88,34,-137,34v-162,0,-300,-139,-300,-300r0,-684v-5,-162,139,-300,300,-300xm359,-179v58,0,109,-50,109,-108r0,-686v2,-58,-51,-108,-109,-108v-58,0,-108,50,-108,108r0,686v-2,58,50,108,108,108","w":761},"r":{"d":"363,-1253v196,-1,297,104,297,299r0,182v0,89,-34,164,-101,225r140,547r-204,0r-115,-473v-40,3,-84,0,-126,1r0,472r-189,0r0,-1253r298,0xm368,-659v58,2,108,-51,108,-109r0,-183v0,-73,-36,-109,-108,-109r-114,0r0,401r114,0","w":764},"s":{"d":"381,-1099v-67,-1,-102,65,-101,138v0,57,26,114,74,175v29,37,145,130,171,157v63,66,104,120,137,197v53,123,29,251,-40,344v-48,65,-122,103,-235,103v-212,0,-307,-152,-322,-355r180,-13v8,73,27,125,58,158v54,59,138,39,177,-26v12,-20,19,-47,19,-83v0,-52,-22,-105,-71,-155v-94,-95,-243,-214,-301,-322v-28,-54,-42,-113,-42,-176v-2,-179,106,-312,291,-312v186,1,289,114,305,288r-181,33v-5,-51,-20,-91,-44,-120v-17,-21,-42,-31,-75,-31","w":755},"t":{"d":"266,-1064r-201,0r0,-189r590,0r0,189r-200,0r0,1064r-189,0r0,-1064","w":720},"u":{"d":"664,-284v5,163,-138,298,-300,298v-162,0,-299,-137,-299,-298r0,-969r185,0r0,967v-2,58,51,108,109,108v58,0,108,-50,108,-108r0,-967r197,0r0,969"},"v":{"d":"289,0r-224,-1253r198,0r157,975r159,-975r198,0r-228,1253r-260,0","w":842},"w":{"d":"842,-1253r198,0r-196,1253r-181,0r-107,-684r-100,684r-181,0r-210,-1253r198,0r99,671r91,-671r198,0r99,671","w":1105},"x":{"d":"762,0r-203,0r-145,-398r-146,398r-203,0r246,-630r-246,-623r209,0r140,387r139,-387r209,0r-246,623","w":827},"y":{"d":"318,-525r-253,-729r208,0r140,450r139,-450r209,0r-254,729r0,525r-189,0r0,-525","w":826},"z":{"d":"617,-1253r0,189r-348,876r348,0r0,188r-552,0r0,-188r349,-876r-349,0r0,-189r552,0","w":682},"{":{"d":"471,11v-211,-2,-303,-49,-307,-247r0,-193v0,-69,-3,-112,-9,-129v-14,-38,-44,-59,-90,-62r0,-97v46,-4,78,-24,90,-63v17,-56,7,-233,9,-322v4,-197,97,-245,307,-247r0,131v-112,3,-149,15,-149,122r0,268v0,68,-44,141,-94,159v49,18,94,90,94,159r0,269v2,108,37,118,149,121r0,131","w":536},"|":{"d":"65,-1651r180,0r0,1754r-180,0r0,-1754","w":310},"}":{"d":"65,-1340v211,2,307,50,308,247r1,274v6,65,24,107,97,111r0,97v-57,6,-73,18,-89,62v-13,38,-8,57,-9,129r0,193v-5,197,-95,244,-308,246r0,-130v113,-3,149,-12,149,-121r0,-269v0,-63,44,-143,94,-159v-49,-18,-95,-93,-94,-159r0,-269v-2,-108,-36,-118,-149,-121r0,-131","w":536},"~":{"d":"451,-1388v58,24,78,3,121,-49r105,78v-57,76,-120,112,-189,110v-39,-1,-89,-18,-152,-53v-45,-25,-75,-37,-91,-37v-22,0,-47,18,-75,55r-105,-78v82,-107,167,-136,289,-78","w":742},"\u00a0":{"w":130},"\u00ad":{"d":"65,-721r560,0r0,190r-560,0r0,-190","w":690}}});
